<?xml version="1.0"?>
<opencv_storage>
<stage14>
  <maxWeakCount>31</maxWeakCount>
  <stageThreshold>-8.1491500139236450e-01</stageThreshold>
  <weakClassifiers>
    <_>
      <internalNodes>
        0 -1 2752 1.0562019050121307e-01</internalNodes>
      <leafValues>
        -2.4522292613983154e-01 1.9923371076583862e-01</leafValues></_>
    <_>
      <internalNodes>
        0 -1 120155 2.6861026417464018e-03</internalNodes>
      <leafValues>
        -1.4124055206775665e-01 2.5217235088348389e-01</leafValues></_>
    <_>
      <internalNodes>
        0 -1 113660 -4.4505847617983818e-03</internalNodes>
      <leafValues>
        3.9811828732490540e-01 -8.3471491932868958e-02</leafValues></_>
    <_>
      <internalNodes>
        0 -1 120770 -3.8904342800378799e-03</internalNodes>
      <leafValues>
        4.5723339915275574e-01 -8.8649824261665344e-02</leafValues></_>
    <_>
      <internalNodes>
        0 -1 60438 -5.7384220417588949e-04</internalNodes>
      <leafValues>
        -3.5524356365203857e-01 8.9213073253631592e-02</leafValues></_>
    <_>
      <internalNodes>
        0 -1 37601 9.2337559908628464e-03</internalNodes>
      <leafValues>
        -7.4769541621208191e-02 3.9235803484916687e-01</leafValues></_>
    <_>
      <internalNodes>
        0 -1 136844 -1.9929599948227406e-03</internalNodes>
      <leafValues>
        3.2274016737937927e-01 -1.1605617403984070e-01</leafValues></_>
    <_>
      <internalNodes>
        0 -1 131572 -4.9178618937730789e-03</internalNodes>
      <leafValues>
        2.9928520321846008e-01 -1.4551159739494324e-01</leafValues></_>
    <_>
      <internalNodes>
        0 -1 154393 5.8735092170536518e-03</internalNodes>
      <leafValues>
        6.4093910157680511e-02 -7.2277867794036865e-01</leafValues></_>
    <_>
      <internalNodes>
        0 -1 13298 -1.0283477604389191e-03</internalNodes>
      <leafValues>
        -3.9603561162948608e-01 7.9357311129570007e-02</leafValues></_>
    <_>
      <internalNodes>
        0 -1 99238 -2.6633772999048233e-02</internalNodes>
      <leafValues>
        -3.1374114751815796e-01 1.1946743726730347e-01</leafValues></_>
    <_>
      <internalNodes>
        0 -1 127753 -5.5293797049671412e-04</internalNodes>
      <leafValues>
        2.7407321333885193e-01 -1.3666832447052002e-01</leafValues></_>
    <_>
      <internalNodes>
        0 -1 95197 1.4516143128275871e-03</internalNodes>
      <leafValues>
        -1.5447856485843658e-01 2.2512324154376984e-01</leafValues></_>
    <_>
      <internalNodes>
        0 -1 132162 -4.9351016059517860e-03</internalNodes>
      <leafValues>
        2.5618165731430054e-01 -1.4265403151512146e-01</leafValues></_>
    <_>
      <internalNodes>
        0 -1 104797 -1.1835234239697456e-02</internalNodes>
      <leafValues>
        -6.3326323032379150e-01 5.3380329161882401e-02</leafValues></_>
    <_>
      <internalNodes>
        0 -1 58508 -6.4778031082823873e-04</internalNodes>
      <leafValues>
        -3.2215431332588196e-01 1.0651225596666336e-01</leafValues></_>
    <_>
      <internalNodes>
        0 -1 128046 6.3050179742276669e-03</internalNodes>
      <leafValues>
        -4.2751092463731766e-02 6.2912380695343018e-01</leafValues></_>
    <_>
      <internalNodes>
        0 -1 107121 9.0854428708553314e-04</internalNodes>
      <leafValues>
        1.4848829805850983e-01 -2.2990469634532928e-01</leafValues></_>
    <_>
      <internalNodes>
        0 -1 120901 -4.2133964598178864e-04</internalNodes>
      <leafValues>
        2.6383304595947266e-01 -1.1658164113759995e-01</leafValues></_>
    <_>
      <internalNodes>
        0 -1 105683 1.3907281681895256e-02</internalNodes>
      <leafValues>
        -5.6574977934360504e-02 6.5155488252639771e-01</leafValues></_>
    <_>
      <internalNodes>
        0 -1 481 -1.1192931560799479e-03</internalNodes>
      <leafValues>
        -2.8025659918785095e-01 1.2371811270713806e-01</leafValues></_>
    <_>
      <internalNodes>
        0 -1 113475 -4.3325956910848618e-02</internalNodes>
      <leafValues>
        -6.8225055932998657e-01 4.0259134024381638e-02</leafValues></_>
    <_>
      <internalNodes>
        0 -1 139031 -1.4780121855437756e-02</internalNodes>
      <leafValues>
        -5.6834292411804199e-01 5.0225336104631424e-02</leafValues></_>
    <_>
      <internalNodes>
        0 -1 23190 8.6414907127618790e-03</internalNodes>
      <leafValues>
        3.7916794419288635e-02 -8.8717895746231079e-01</leafValues></_>
    <_>
      <internalNodes>
        0 -1 138112 8.5066966712474823e-03</internalNodes>
      <leafValues>
        -8.8608473539352417e-02 3.9028286933898926e-01</leafValues></_>
    <_>
      <internalNodes>
        0 -1 149209 2.7058613486588001e-03</internalNodes>
      <leafValues>
        -6.4278952777385712e-02 6.2352669239044189e-01</leafValues></_>
    <_>
      <internalNodes>
        0 -1 115606 -3.2399492920376360e-04</internalNodes>
      <leafValues>
        1.5439189970493317e-01 -2.1056342124938965e-01</leafValues></_>
    <_>
      <internalNodes>
        0 -1 117126 1.2628090567886829e-02</internalNodes>
      <leafValues>
        -4.9911182373762131e-02 6.5374308824539185e-01</leafValues></_>
    <_>
      <internalNodes>
        0 -1 141909 -7.9838857054710388e-03</internalNodes>
      <leafValues>
        -6.4599674940109253e-01 5.9932798147201538e-02</leafValues></_>
    <_>
      <internalNodes>
        0 -1 115072 -5.3960345685482025e-03</internalNodes>
      <leafValues>
        2.6661407947540283e-01 -1.4005574584007263e-01</leafValues></_>
    <_>
      <internalNodes>
        0 -1 155239 -1.5488686040043831e-03</internalNodes>
      <leafValues>
        -4.3338087201118469e-01 9.2248633503913879e-02</leafValues></_></weakClassifiers></stage14>
</opencv_storage>
